<?xml version="1.0"?>
<opencv_storage>
<cascade>
  <stageType>BOOST</stageType>
  <featureType>HAAR</featureType>
  <height>30</height>
  <width>30</width>
  <stageParams>
    <boostType>GAB</boostType>
    <minHitRate>9.9500000476837158e-01</minHitRate>
    <maxFalseAlarm>5.0000000000000000e-01</maxFalseAlarm>
    <weightTrimRate>9.4999999999999996e-01</weightTrimRate>
    <maxDepth>1</maxDepth>
    <maxWeakCount>100</maxWeakCount></stageParams>
  <featureParams>
    <maxCatCount>0</maxCatCount>
    <featSize>1</featSize>
    <mode>BASIC</mode></featureParams>
  <stageNum>20</stageNum>
  <stages>
    <!-- stage 0 -->
    <_>
      <maxWeakCount>2</maxWeakCount>
      <stageThreshold>-5.1290191709995270e-02</stageThreshold>
      <weakClassifiers>
        <_>
          <internalNodes>
            0 -1 20 2.4535343050956726e-02</internalNodes>
          <leafValues>
            -8.2665425539016724e-01 9.3412625789642334e-01</leafValues></_>
        <_>
          <internalNodes>
            0 -1 51 2.9324076604098082e-03</internalNodes>
          <leafValues>
            -9.5483994483947754e-01 7.7536404132843018e-01</leafValues></_></weakClassifiers></_>
    <!-- stage 1 -->
    <_>
      <maxWeakCount>3</maxWeakCount>
      <stageThreshold>-1.0637507438659668e+00</stageThreshold>
      <weakClassifiers>
        <_>
          <internalNodes>
            0 -1 14 -2.8936766088008881e-02</internalNodes>
          <leafValues>
            8.3237469196319580e-01 -9.2623811960220337e-01</leafValues></_>
        <_>
          <internalNodes>
            0 -1 26 -4.9586705863475800e-03</internalNodes>
          <leafValues>
            7.7850931882858276e-01 -8.3244794607162476e-01</leafValues></_>
        <_>
          <internalNodes>
            0 -1 5 -9.2820888385176659e-03</internalNodes>
          <leafValues>
            6.9493538141250610e-01 -9.3718600273132324e-01</leafValues></_></weakClassifiers></_>
    <!-- stage 2 -->
    <_>
      <maxWeakCount>2</maxWeakCount>
      <stageThreshold>-3.3523204922676086e-01</stageThreshold>
      <weakClassifiers>
        <_>
          <internalNodes>
            0 -1 27 2.0728732924908400e-03</internalNodes>
          <leafValues>
            -8.8947927951812744e-01 7.9265308380126953e-01</leafValues></_>
        <_>
          <internalNodes>
            0 -1 2 -6.5250501036643982e-02</internalNodes>
          <leafValues>
            5.5424720048904419e-01 -9.2240625619888306e-01</leafValues></_></weakClassifiers></_>
    <!-- stage 3 -->
    <_>
      <maxWeakCount>2</maxWeakCount>
      <stageThreshold>-2.6730886101722717e-01</stageThreshold>
      <weakClassifiers>
        <_>
          <internalNodes>
            0 -1 47 -1.3905587792396545e-01</internalNodes>
          <leafValues>
            6.5693432092666626e-01 -9.6231156587600708e-01</leafValues></_>
        <_>
          <internalNodes>
            0 -1 11 -1.0166584514081478e-02</internalNodes>
          <leafValues>
            6.9500273466110229e-01 -8.3970588445663452e-01</leafValues></_></weakClassifiers></_>
    <!-- stage 4 -->
    <_>
      <maxWeakCount>2</maxWeakCount>
      <stageThreshold>-2.3353397846221924e-01</stageThreshold>
      <weakClassifiers>
        <_>
          <internalNodes>
            0 -1 67 -5.1986156904604286e-05</internalNodes>
          <leafValues>
            6.8941175937652588e-01 -8.3613914251327515e-01</leafValues></_>
        <_>
          <internalNodes>
            0 -1 40 -2.1929428912699223e-03</internalNodes>
          <leafValues>
            6.0260522365570068e-01 -8.6823928356170654e-01</leafValues></_></weakClassifiers></_>
    <!-- stage 5 -->
    <_>
      <maxWeakCount>2</maxWeakCount>
      <stageThreshold>-3.1218925118446350e-01</stageThreshold>
      <weakClassifiers>
        <_>
          <internalNodes>
            0 -1 45 1.7377611249685287e-02</internalNodes>
          <leafValues>
            -8.7938594818115234e-01 7.4641150236129761e-01</leafValues></_>
        <_>
          <internalNodes>
            0 -1 57 2.7445457875728607e-02</internalNodes>
          <leafValues>
            -9.5132333040237427e-01 5.6719672679901123e-01</leafValues></_></weakClassifiers></_>
    <!-- stage 6 -->
    <_>
      <maxWeakCount>2</maxWeakCount>
      <stageThreshold>-3.6695501208305359e-01</stageThreshold>
      <weakClassifiers>
        <_>
          <internalNodes>
            0 -1 49 -2.3592048819409683e-05</internalNodes>
          <leafValues>
            5.7606345415115356e-01 -8.5365855693817139e-01</leafValues></_>
        <_>
          <internalNodes>
            0 -1 68 -3.7922429328318685e-05</internalNodes>
          <leafValues>
            4.8670354485511780e-01 -8.3516281843185425e-01</leafValues></_></weakClassifiers></_>
    <!-- stage 7 -->
    <_>
      <maxWeakCount>3</maxWeakCount>
      <stageThreshold>-1.2284997701644897e+00</stageThreshold>
      <weakClassifiers>
        <_>
          <internalNodes>
            0 -1 22 -1.0858053341507912e-02</internalNodes>
          <leafValues>
            5.1255941390991211e-01 -8.9610391855239868e-01</leafValues></_>
        <_>
          <internalNodes>
            0 -1 32 -8.1005899119190872e-05</internalNodes>
          <leafValues>
            4.0455758571624756e-01 -9.4127339124679565e-01</leafValues></_>
        <_>
          <internalNodes>
            0 -1 61 -3.3052600920200348e-03</internalNodes>
          <leafValues>
            4.4898337125778198e-01 -7.9978579282760620e-01</leafValues></_></weakClassifiers></_>
    <!-- stage 8 -->
    <_>
      <maxWeakCount>3</maxWeakCount>
      <stageThreshold>-1.0964879989624023e+00</stageThreshold>
      <weakClassifiers>
        <_>
          <internalNodes>
            0 -1 16 -8.5438536480069160e-03</internalNodes>
          <leafValues>
            5.3449475765228271e-01 -8.6593705415725708e-01</leafValues></_>
        <_>
          <internalNodes>
            0 -1 44 8.4411248564720154e-02</internalNodes>
          <leafValues>
            -8.8920950889587402e-01 4.2124915122985840e-01</leafValues></_>
        <_>
          <internalNodes>
            0 -1 4 -9.1063901782035828e-03</internalNodes>
          <leafValues>
            5.2235710620880127e-01 -7.4177330732345581e-01</leafValues></_></weakClassifiers></_>
    <!-- stage 9 -->
    <_>
      <maxWeakCount>4</maxWeakCount>
      <stageThreshold>-5.9529155492782593e-01</stageThreshold>
      <weakClassifiers>
        <_>
          <internalNodes>
            0 -1 1 -5.2045732736587524e-02</internalNodes>
          <leafValues>
            5.8327424526214600e-01 -9.1258275508880615e-01</leafValues></_>
        <_>
          <internalNodes>
            0 -1 38 -1.8183025717735291e-01</internalNodes>
          <leafValues>
            5.1045107841491699e-01 -7.1438527107238770e-01</leafValues></_>
        <_>
          <internalNodes>
            0 -1 19 1.8702469766139984e-02</internalNodes>
          <leafValues>
            -6.8115270137786865e-01 5.6481045484542847e-01</leafValues></_>
        <_>
          <internalNodes>
            0 -1 48 1.0305889882147312e-03</internalNodes>
          <leafValues>
            -8.8924318552017212e-01 4.8799288272857666e-01</leafValues></_></weakClassifiers></_>
    <!-- stage 10 -->
    <_>
      <maxWeakCount>4</maxWeakCount>
      <stageThreshold>-7.5212252140045166e-01</stageThreshold>
      <weakClassifiers>
        <_>
          <internalNodes>
            0 -1 17 -1.0763451457023621e-02</internalNodes>
          <leafValues>
            4.5165562629699707e-01 -8.3536583185195923e-01</leafValues></_>
        <_>
          <internalNodes>
            0 -1 64 4.6690199524164200e-03</internalNodes>
          <leafValues>
            -8.1220853328704834e-01 3.7857085466384888e-01</leafValues></_>
        <_>
          <internalNodes>
            0 -1 30 3.4746386518236250e-05</internalNodes>
          <leafValues>
            -8.4105008840560913e-01 4.0736031532287598e-01</leafValues></_>
        <_>
          <internalNodes>
            0 -1 3 -5.8123481273651123e-01</internalNodes>
          <leafValues>
            4.8809158802032471e-01 -6.2528938055038452e-01</leafValues></_></weakClassifiers></_>
    <!-- stage 11 -->
    <_>
      <maxWeakCount>5</maxWeakCount>
      <stageThreshold>-5.2906543016433716e-01</stageThreshold>
      <weakClassifiers>
        <_>
          <internalNodes>
            0 -1 59 4.3395179091021419e-04</internalNodes>
          <leafValues>
            -7.5808721780776978e-01 4.6254295110702515e-01</leafValues></_>
        <_>
          <internalNodes>
            0 -1 37 -2.8765255212783813e-01</internalNodes>
          <leafValues>
            3.0287736654281616e-01 -8.9050710201263428e-01</leafValues></_>
        <_>
          <internalNodes>
            0 -1 42 6.1697568744421005e-03</internalNodes>
          <leafValues>
            3.6304241418838501e-01 -7.9344898462295532e-01</leafValues></_>
        <_>
          <internalNodes>
            0 -1 21 6.6630274523049593e-04</internalNodes>
          <leafValues>
            -7.0424252748489380e-01 3.8985788822174072e-01</leafValues></_>
        <_>
          <internalNodes>
            0 -1 56 1.2228210456669331e-02</internalNodes>
          <leafValues>
            -8.1688153743743896e-01 3.2973554730415344e-01</leafValues></_></weakClassifiers></_>
    <!-- stage 12 -->
    <_>
      <maxWeakCount>3</maxWeakCount>
      <stageThreshold>-2.7127617597579956e-01</stageThreshold>
      <weakClassifiers>
        <_>
          <internalNodes>
            0 -1 7 7.1725208545103669e-04</internalNodes>
          <leafValues>
            -8.9999997615814209e-01 4.4760671257972717e-01</leafValues></_>
        <_>
          <internalNodes>
            0 -1 58 1.1818334460258484e-03</internalNodes>
          <leafValues>
            3.2034337520599365e-01 -8.6878764629364014e-01</leafValues></_>
        <_>
          <internalNodes>
            0 -1 0 1.8443739973008633e-03</internalNodes>
          <leafValues>
            -8.4955316781997681e-01 3.0838045477867126e-01</leafValues></_></weakClassifiers></_>
    <!-- stage 13 -->
    <_>
      <maxWeakCount>4</maxWeakCount>
      <stageThreshold>-8.6223173141479492e-01</stageThreshold>
      <weakClassifiers>
        <_>
          <internalNodes>
            0 -1 53 3.1604398827767000e-05</internalNodes>
          <leafValues>
            -7.5999999046325684e-01 4.1424801945686340e-01</leafValues></_>
        <_>
          <internalNodes>
            0 -1 15 -2.2855061615700833e-05</internalNodes>
          <leafValues>
            4.0213015675544739e-01 -7.0996850728988647e-01</leafValues></_>
        <_>
          <internalNodes>
            0 -1 6 3.3609668025746942e-04</internalNodes>
          <leafValues>
            2.9984366893768311e-01 -9.1323792934417725e-01</leafValues></_>
        <_>
          <internalNodes>
            0 -1 54 4.8391995951533318e-03</internalNodes>
          <leafValues>
            -7.7322965860366821e-01 3.4672665596008301e-01</leafValues></_></weakClassifiers></_>
    <!-- stage 14 -->
    <_>
      <maxWeakCount>4</maxWeakCount>
      <stageThreshold>-1.9227172434329987e-01</stageThreshold>
      <weakClassifiers>
        <_>
          <internalNodes>
            0 -1 8 9.5390668138861656e-04</internalNodes>
          <leafValues>
            3.9066338539123535e-01 -9.3308550119400024e-01</leafValues></_>
        <_>
          <internalNodes>
            0 -1 24 -4.6691333409398794e-05</internalNodes>
          <leafValues>
            2.3977704346179962e-01 -8.8299024105072021e-01</leafValues></_>
        <_>
          <internalNodes>
            0 -1 33 4.6232109889388084e-03</internalNodes>
          <leafValues>
            2.6428562402725220e-01 -9.1148889064788818e-01</leafValues></_>
        <_>
          <internalNodes>
            0 -1 28 -1.6443337081000209e-03</internalNodes>
          <leafValues>
            2.3675109446048737e-01 -9.2147505283355713e-01</leafValues></_></weakClassifiers></_>
    <!-- stage 15 -->
    <_>
      <maxWeakCount>5</maxWeakCount>
      <stageThreshold>-9.0183979272842407e-01</stageThreshold>
      <weakClassifiers>
        <_>
          <internalNodes>
            0 -1 55 3.6457143723964691e-02</internalNodes>
          <leafValues>
            -8.6902654170989990e-01 3.9038100838661194e-01</leafValues></_>
        <_>
          <internalNodes>
            0 -1 43 -4.9571404233574867e-03</internalNodes>
          <leafValues>
            -9.3855357170104980e-01 2.3265744745731354e-01</leafValues></_>
        <_>
          <internalNodes>
            0 -1 41 1.9185212440788746e-03</internalNodes>
          <leafValues>
            2.7876025438308716e-01 -9.0276587009429932e-01</leafValues></_>
        <_>
          <internalNodes>
            0 -1 66 -2.0484665583353490e-05</internalNodes>
          <leafValues>
            2.4426499009132385e-01 -8.2700079679489136e-01</leafValues></_>
        <_>
          <internalNodes>
            0 -1 52 1.1249083327129483e-03</internalNodes>
          <leafValues>
            -8.2821941375732422e-01 2.8276985883712769e-01</leafValues></_></weakClassifiers></_>
    <!-- stage 16 -->
    <_>
      <maxWeakCount>5</maxWeakCount>
      <stageThreshold>-1.2659331560134888e+00</stageThreshold>
      <weakClassifiers>
        <_>
          <internalNodes>
            0 -1 13 -4.0822713635861874e-03</internalNodes>
          <leafValues>
            -8.1016951799392700e-01 3.8832488656044006e-01</leafValues></_>
        <_>
          <internalNodes>
            0 -1 34 -4.7695362567901611e-01</internalNodes>
          <leafValues>
            8.1261175870895386e-01 -3.3318644762039185e-01</leafValues></_>
        <_>
          <internalNodes>
            0 -1 35 -1.9014512654393911e-03</internalNodes>
          <leafValues>
            -8.9889079332351685e-01 3.3335494995117188e-01</leafValues></_>
        <_>
          <internalNodes>
            0 -1 63 -3.6063487641513348e-03</internalNodes>
          <leafValues>
            3.0255472660064697e-01 -8.3945620059967041e-01</leafValues></_>
        <_>
          <internalNodes>
            0 -1 29 -1.0185430292040110e-03</internalNodes>
          <leafValues>
            2.9516541957855225e-01 -7.5848692655563354e-01</leafValues></_></weakClassifiers></_>
    <!-- stage 17 -->
    <_>
      <maxWeakCount>5</maxWeakCount>
      <stageThreshold>-8.3325612545013428e-01</stageThreshold>
      <weakClassifiers>
        <_>
          <internalNodes>
            0 -1 60 8.9797284454107285e-03</internalNodes>
          <leafValues>
            -6.3843238353729248e-01 4.6472728252410889e-01</leafValues></_>
        <_>
          <internalNodes>
            0 -1 31 5.8072886895388365e-04</internalNodes>
          <leafValues>
            -9.4373071193695068e-01 2.4854587018489838e-01</leafValues></_>
        <_>
          <internalNodes>
            0 -1 10 1.8694707250688225e-04</internalNodes>
          <leafValues>
            2.9173073172569275e-01 -8.7647664546966553e-01</leafValues></_>
        <_>
          <internalNodes>
            0 -1 18 6.5027619712054729e-04</internalNodes>
          <leafValues>
            2.4842636287212372e-01 -8.8067543506622314e-01</leafValues></_>
        <_>
          <internalNodes>
            0 -1 69 3.6895897937938571e-04</internalNodes>
          <leafValues>
            1.8468062579631805e-01 -9.6648293733596802e-01</leafValues></_></weakClassifiers></_>
    <!-- stage 18 -->
    <_>
      <maxWeakCount>5</maxWeakCount>
      <stageThreshold>-4.8696616291999817e-01</stageThreshold>
      <weakClassifiers>
        <_>
          <internalNodes>
            0 -1 9 3.3273587177973241e-05</internalNodes>
          <leafValues>
            -7.2183591127395630e-01 4.5127850770950317e-01</leafValues></_>
        <_>
          <internalNodes>
            0 -1 12 -1.2197401374578476e-02</internalNodes>
          <leafValues>
            3.5587173700332642e-01 -7.5767540931701660e-01</leafValues></_>
        <_>
          <internalNodes>
            0 -1 62 4.8446934670209885e-03</internalNodes>
          <leafValues>
            -6.2448310852050781e-01 4.3466466665267944e-01</leafValues></_>
        <_>
          <internalNodes>
            0 -1 39 -2.9683236498385668e-03</internalNodes>
          <leafValues>
            -8.6289483308792114e-01 3.0564433336257935e-01</leafValues></_>
        <_>
          <internalNodes>
            0 -1 25 5.4577430710196495e-03</internalNodes>
          <leafValues>
            3.0722811818122864e-01 -8.3173084259033203e-01</leafValues></_></weakClassifiers></_>
    <!-- stage 19 -->
    <_>
      <maxWeakCount>5</maxWeakCount>
      <stageThreshold>-6.7152464389801025e-01</stageThreshold>
      <weakClassifiers>
        <_>
          <internalNodes>
            0 -1 65 -3.3696074387989938e-04</internalNodes>
          <leafValues>
            -8.8126158714294434e-01 3.7430855631828308e-01</leafValues></_>
        <_>
          <internalNodes>
            0 -1 46 1.1319540441036224e-02</internalNodes>
          <leafValues>
            -7.2930538654327393e-01 3.0740711092948914e-01</leafValues></_>
        <_>
          <internalNodes>
            0 -1 50 -2.4422788992524147e-03</internalNodes>
          <leafValues>
            3.0716872215270996e-01 -8.4203273057937622e-01</leafValues></_>
        <_>
          <internalNodes>
            0 -1 23 -6.0379842761904001e-04</internalNodes>
          <leafValues>
            3.9848428964614868e-01 -7.1328121423721313e-01</leafValues></_>
        <_>
          <internalNodes>
            0 -1 36 -2.8311032801866531e-03</internalNodes>
          <leafValues>
            -9.4712775945663452e-01 2.8020447492599487e-01</leafValues></_></weakClassifiers></_></stages>
  <features>
    <_>
      <rects>
        <_>
          0 0 8 6 -1.</_>
        <_>
          0 0 4 3 2.</_>
        <_>
          4 3 4 3 2.</_></rects>
      <tilted>0</tilted></_>
    <_>
      <rects>
        <_>
          0 0 12 30 -1.</_>
        <_>
          0 0 6 15 2.</_>
        <_>
          6 15 6 15 2.</_></rects>
      <tilted>0</tilted></_>
    <_>
      <rects>
        <_>
          0 0 16 30 -1.</_>
        <_>
          0 0 8 15 2.</_>
        <_>
          8 15 8 15 2.</_></rects>
      <tilted>0</tilted></_>
    <_>
      <rects>
        <_>
          0 1 26 28 -1.</_>
        <_>
          0 15 26 14 2.</_></rects>
      <tilted>0</tilted></_>
    <_>
      <rects>
        <_>
          0 4 12 6 -1.</_>
        <_>
          0 4 6 3 2.</_>
        <_>
          6 7 6 3 2.</_></rects>
      <tilted>0</tilted></_>
    <_>
      <rects>
        <_>
          0 10 15 12 -1.</_>
        <_>
          0 14 15 4 3.</_></rects>
      <tilted>0</tilted></_>
    <_>
      <rects>
        <_>
          0 23 3 4 -1.</_>
        <_>
          0 25 3 2 2.</_></rects>
      <tilted>0</tilted></_>
    <_>
      <rects>
        <_>
          0 25 12 5 -1.</_>
        <_>
          4 25 4 5 3.</_></rects>
      <tilted>0</tilted></_>
    <_>
      <rects>
        <_>
          0 26 6 4 -1.</_>
        <_>
          3 26 3 4 2.</_></rects>
      <tilted>0</tilted></_>
    <_>
      <rects>
        <_>
          0 27 12 2 -1.</_>
        <_>
          0 27 6 1 2.</_>
        <_>
          6 28 6 1 2.</_></rects>
      <tilted>0</tilted></_>
    <_>
      <rects>
        <_>
          0 29 28 1 -1.</_>
        <_>
          14 29 14 1 2.</_></rects>
      <tilted>0</tilted></_>
    <_>
      <rects>
        <_>
          1 2 18 6 -1.</_>
        <_>
          1 2 9 3 2.</_>
        <_>
          10 5 9 3 2.</_></rects>
      <tilted>0</tilted></_>
    <_>
      <rects>
        <_>
          1 11 19 12 -1.</_>
        <_>
          1 15 19 4 3.</_></rects>
      <tilted>0</tilted></_>
    <_>
      <rects>
        <_>
          1 13 18 6 -1.</_>
        <_>
          1 13 9 3 2.</_>
        <_>
          10 16 9 3 2.</_></rects>
      <tilted>0</tilted></_>
    <_>
      <rects>
        <_>
          2 7 24 6 -1.</_>
        <_>
          2 10 24 3 2.</_></rects>
      <tilted>0</tilted></_>
    <_>
      <rects>
        <_>
          2 14 1 2 -1.</_>
        <_>
          2 15 1 1 2.</_></rects>
      <tilted>0</tilted></_>
    <_>
      <rects>
        <_>
          2 20 16 10 -1.</_>
        <_>
          2 20 8 5 2.</_>
        <_>
          10 25 8 5 2.</_></rects>
      <tilted>0</tilted></_>
    <_>
      <rects>
        <_>
          3 0 10 12 -1.</_>
        <_>
          3 0 5 6 2.</_>
        <_>
          8 6 5 6 2.</_></rects>
      <tilted>0</tilted></_>
    <_>
      <rects>
        <_>
          4 0 26 2 -1.</_>
        <_>
          4 0 13 1 2.</_>
        <_>
          17 1 13 1 2.</_></rects>
      <tilted>0</tilted></_>
    <_>
      <rects>
        <_>
          4 0 22 4 -1.</_>
        <_>
          4 2 22 2 2.</_></rects>
      <tilted>0</tilted></_>
    <_>
      <rects>
        <_>
          4 0 24 9 -1.</_>
        <_>
          4 3 24 3 3.</_></rects>
      <tilted>0</tilted></_>
    <_>
      <rects>
        <_>
          4 2 2 4 -1.</_>
        <_>
          4 4 2 2 2.</_></rects>
      <tilted>0</tilted></_>
    <_>
      <rects>
        <_>
          4 7 5 8 -1.</_>
        <_>
          4 11 5 4 2.</_></rects>
      <tilted>0</tilted></_>
    <_>
      <rects>
        <_>
          4 8 1 4 -1.</_>
        <_>
          4 10 1 2 2.</_></rects>
      <tilted>0</tilted></_>
    <_>
      <rects>
        <_>
          4 11 1 2 -1.</_>
        <_>
          4 12 1 1 2.</_></rects>
      <tilted>0</tilted></_>
    <_>
      <rects>
        <_>
          4 14 18 4 -1.</_>
        <_>
          13 14 9 4 2.</_></rects>
      <tilted>0</tilted></_>
    <_>
      <rects>
        <_>
          5 1 8 8 -1.</_>
        <_>
          5 1 4 4 2.</_>
        <_>
          9 5 4 4 2.</_></rects>
      <tilted>0</tilted></_>
    <_>
      <rects>
        <_>
          6 0 6 4 -1.</_>
        <_>
          6 2 6 2 2.</_></rects>
      <tilted>0</tilted></_>
    <_>
      <rects>
        <_>
          6 14 14 16 -1.</_>
        <_>
          6 14 7 8 2.</_>
        <_>
          13 22 7 8 2.</_></rects>
      <tilted>0</tilted></_>
    <_>
      <rects>
        <_>
          6 25 12 4 -1.</_>
        <_>
          6 25 6 2 2.</_>
        <_>
          12 27 6 2 2.</_></rects>
      <tilted>0</tilted></_>
    <_>
      <rects>
        <_>
          6 28 7 2 -1.</_>
        <_>
          6 29 7 1 2.</_></rects>
      <tilted>0</tilted></_>
    <_>
      <rects>
        <_>
          6 29 24 1 -1.</_>
        <_>
          18 29 12 1 2.</_></rects>
      <tilted>0</tilted></_>
    <_>
      <rects>
        <_>
          7 13 2 17 -1.</_>
        <_>
          8 13 1 17 2.</_></rects>
      <tilted>0</tilted></_>
    <_>
      <rects>
        <_>
          7 14 18 6 -1.</_>
        <_>
          13 14 6 6 3.</_></rects>
      <tilted>0</tilted></_>
    <_>
      <rects>
        <_>
          8 2 15 28 -1.</_>
        <_>
          8 16 15 14 2.</_></rects>
      <tilted>0</tilted></_>
    <_>
      <rects>
        <_>
          9 6 6 10 -1.</_>
        <_>
          9 6 3 5 2.</_>
        <_>
          12 11 3 5 2.</_></rects>
      <tilted>0</tilted></_>
    <_>
      <rects>
        <_>
          9 14 16 6 -1.</_>
        <_>
          9 14 8 3 2.</_>
        <_>
          17 17 8 3 2.</_></rects>
      <tilted>0</tilted></_>
    <_>
      <rects>
        <_>
          10 0 11 30 -1.</_>
        <_>
          10 15 11 15 2.</_></rects>
      <tilted>0</tilted></_>
    <_>
      <rects>
        <_>
          11 0 6 30 -1.</_>
        <_>
          11 15 6 15 2.</_></rects>
      <tilted>0</tilted></_>
    <_>
      <rects>
        <_>
          11 13 15 2 -1.</_>
        <_>
          16 13 5 2 3.</_></rects>
      <tilted>0</tilted></_>
    <_>
      <rects>
        <_>
          12 15 1 14 -1.</_>
        <_>
          12 22 1 7 2.</_></rects>
      <tilted>0</tilted></_>
    <_>
      <rects>
        <_>
          12 16 12 6 -1.</_>
        <_>
          16 16 4 6 3.</_></rects>
      <tilted>0</tilted></_>
    <_>
      <rects>
        <_>
          13 9 14 12 -1.</_>
        <_>
          13 9 7 6 2.</_>
        <_>
          20 15 7 6 2.</_></rects>
      <tilted>0</tilted></_>
    <_>
      <rects>
        <_>
          13 12 9 13 -1.</_>
        <_>
          16 12 3 13 3.</_></rects>
      <tilted>0</tilted></_>
    <_>
      <rects>
        <_>
          14 0 16 30 -1.</_>
        <_>
          14 0 8 15 2.</_>
        <_>
          22 15 8 15 2.</_></rects>
      <tilted>0</tilted></_>
    <_>
      <rects>
        <_>
          14 1 16 10 -1.</_>
        <_>
          14 1 8 5 2.</_>
        <_>
          22 6 8 5 2.</_></rects>
      <tilted>0</tilted></_>
    <_>
      <rects>
        <_>
          15 1 12 8 -1.</_>
        <_>
          15 1 6 4 2.</_>
        <_>
          21 5 6 4 2.</_></rects>
      <tilted>0</tilted></_>
    <_>
      <rects>
        <_>
          16 0 6 30 -1.</_>
        <_>
          16 15 6 15 2.</_></rects>
      <tilted>0</tilted></_>
    <_>
      <rects>
        <_>
          17 29 8 1 -1.</_>
        <_>
          21 29 4 1 2.</_></rects>
      <tilted>0</tilted></_>
    <_>
      <rects>
        <_>
          18 0 2 3 -1.</_>
        <_>
          19 0 1 3 2.</_></rects>
      <tilted>0</tilted></_>
    <_>
      <rects>
        <_>
          18 14 1 14 -1.</_>
        <_>
          18 21 1 7 2.</_></rects>
      <tilted>0</tilted></_>
    <_>
      <rects>
        <_>
          18 26 8 4 -1.</_>
        <_>
          22 26 4 4 2.</_></rects>
      <tilted>0</tilted></_>
    <_>
      <rects>
        <_>
          18 27 12 3 -1.</_>
        <_>
          22 27 4 3 3.</_></rects>
      <tilted>0</tilted></_>
    <_>
      <rects>
        <_>
          18 28 6 2 -1.</_>
        <_>
          18 29 6 1 2.</_></rects>
      <tilted>0</tilted></_>
    <_>
      <rects>
        <_>
          19 0 8 10 -1.</_>
        <_>
          19 0 4 5 2.</_>
        <_>
          23 5 4 5 2.</_></rects>
      <tilted>0</tilted></_>
    <_>
      <rects>
        <_>
          20 1 10 28 -1.</_>
        <_>
          20 1 5 14 2.</_>
        <_>
          25 15 5 14 2.</_></rects>
      <tilted>0</tilted></_>
    <_>
      <rects>
        <_>
          20 2 6 28 -1.</_>
        <_>
          20 2 3 14 2.</_>
        <_>
          23 16 3 14 2.</_></rects>
      <tilted>0</tilted></_>
    <_>
      <rects>
        <_>
          20 2 10 28 -1.</_>
        <_>
          20 2 5 14 2.</_>
        <_>
          25 16 5 14 2.</_></rects>
      <tilted>0</tilted></_>
    <_>
      <rects>
        <_>
          20 9 4 12 -1.</_>
        <_>
          20 9 2 6 2.</_>
        <_>
          22 15 2 6 2.</_></rects>
      <tilted>0</tilted></_>
    <_>
      <rects>
        <_>
          21 0 1 4 -1.</_>
        <_>
          21 2 1 2 2.</_></rects>
      <tilted>0</tilted></_>
    <_>
      <rects>
        <_>
          21 1 6 9 -1.</_>
        <_>
          21 4 6 3 3.</_></rects>
      <tilted>0</tilted></_>
    <_>
      <rects>
        <_>
          22 6 3 6 -1.</_>
        <_>
          22 9 3 3 2.</_></rects>
      <tilted>0</tilted></_>
    <_>
      <rects>
        <_>
          23 3 6 8 -1.</_>
        <_>
          23 3 3 4 2.</_>
        <_>
          26 7 3 4 2.</_></rects>
      <tilted>0</tilted></_>
    <_>
      <rects>
        <_>
          23 6 2 8 -1.</_>
        <_>
          23 10 2 4 2.</_></rects>
      <tilted>0</tilted></_>
    <_>
      <rects>
        <_>
          26 0 4 24 -1.</_>
        <_>
          26 0 2 12 2.</_>
        <_>
          28 12 2 12 2.</_></rects>
      <tilted>0</tilted></_>
    <_>
      <rects>
        <_>
          26 0 4 2 -1.</_>
        <_>
          26 1 4 1 2.</_></rects>
      <tilted>0</tilted></_>
    <_>
      <rects>
        <_>
          26 11 1 2 -1.</_>
        <_>
          26 12 1 1 2.</_></rects>
      <tilted>0</tilted></_>
    <_>
      <rects>
        <_>
          27 12 1 2 -1.</_>
        <_>
          27 13 1 1 2.</_></rects>
      <tilted>0</tilted></_>
    <_>
      <rects>
        <_>
          27 13 1 2 -1.</_>
        <_>
          27 14 1 1 2.</_></rects>
      <tilted>0</tilted></_>
    <_>
      <rects>
        <_>
          29 22 1 8 -1.</_>
        <_>
          29 26 1 4 2.</_></rects>
      <tilted>0</tilted></_></features></cascade>
</opencv_storage>
